<?xml version="1.0"?>
<opencv_storage>
<cascade>
  <stageType>BOOST</stageType>
  <featureType>HAAR</featureType>
  <height>20</height>
  <width>20</width>
  <stageParams>
    <boostType>GAB</boostType>
    <minHitRate>9.9900001287460327e-001</minHitRate>
    <maxFalseAlarm>5.0000000000000000e-001</maxFalseAlarm>
    <weightTrimRate>9.4999999999999996e-001</weightTrimRate>
    <maxDepth>1</maxDepth>
    <maxWeakCount>100</maxWeakCount></stageParams>
  <featureParams>
    <maxCatCount>0</maxCatCount>
    <featSize>1</featSize>
    <mode>ALL</mode></featureParams>
  <stageNum>15</stageNum>
  <stages>
    <!-- stage 0 -->
    <_>
      <maxWeakCount>2</maxWeakCount>
      <stageThreshold>-6.1269465833902359e-002</stageThreshold>
      <weakClassifiers>
        <_>
          <internalNodes>
            0 -1 39 1.8830090761184692e-001</internalNodes>
          <leafValues>
            -9.8079997301101685e-001 9.9344259500503540e-001</leafValues></_>
        <_>
          <internalNodes>
            0 -1 12 2.7404248714447021e-002</internalNodes>
          <leafValues>
            -9.7138267755508423e-001 9.1953051090240479e-001</leafValues></_></weakClassifiers></_>
    <!-- stage 1 -->
    <_>
      <maxWeakCount>4</maxWeakCount>
      <stageThreshold>-2.0670862197875977e+000</stageThreshold>
      <weakClassifiers>
        <_>
          <internalNodes>
            0 -1 9 7.8666284680366516e-002</internalNodes>
          <leafValues>
            -9.2076069116592407e-001 9.0635448694229126e-001</leafValues></_>
        <_>
          <internalNodes>
            0 -1 18 2.8586488217115402e-002</internalNodes>
          <leafValues>
            -9.4654798507690430e-001 7.9502362012863159e-001</leafValues></_>
        <_>
          <internalNodes>
            0 -1 44 1.3033289462327957e-002</internalNodes>
          <leafValues>
            -8.7298613786697388e-001 7.7079898118972778e-001</leafValues></_>
        <_>
          <internalNodes>
            0 -1 55 9.3501314520835876e-002</internalNodes>
          <leafValues>
            -9.8205316066741943e-001 6.7320853471755981e-001</leafValues></_></weakClassifiers></_>
    <!-- stage 2 -->
    <_>
      <maxWeakCount>4</maxWeakCount>
      <stageThreshold>-1.9211268424987793e+000</stageThreshold>
      <weakClassifiers>
        <_>
          <internalNodes>
            0 -1 42 3.3486213535070419e-002</internalNodes>
          <leafValues>
            -9.2810457944869995e-001 8.1132078170776367e-001</leafValues></_>
        <_>
          <internalNodes>
            0 -1 32 -1.0454026982188225e-002</internalNodes>
          <leafValues>
            7.6176947355270386e-001 -9.0528976917266846e-001</leafValues></_>
        <_>
          <internalNodes>
            0 -1 48 -6.6057797521352768e-003</internalNodes>
          <leafValues>
            7.4265170097351074e-001 -8.0977886915206909e-001</leafValues></_>
        <_>
          <internalNodes>
            0 -1 4 2.8772678971290588e-001</internalNodes>
          <leafValues>
            -7.4106293916702271e-001 7.2204631567001343e-001</leafValues></_></weakClassifiers></_>
    <!-- stage 3 -->
    <_>
      <maxWeakCount>3</maxWeakCount>
      <stageThreshold>-1.2265216112136841e+000</stageThreshold>
      <weakClassifiers>
        <_>
          <internalNodes>
            0 -1 41 -1.7328701913356781e-002</internalNodes>
          <leafValues>
            8.7142854928970337e-001 -8.5230767726898193e-001</leafValues></_>
        <_>
          <internalNodes>
            0 -1 15 3.6907799541950226e-002</internalNodes>
          <leafValues>
            -8.9138996601104736e-001 6.2820470333099365e-001</leafValues></_>
        <_>
          <internalNodes>
            0 -1 1 -1.0856003314256668e-001</internalNodes>
          <leafValues>
            5.1717603206634521e-001 -9.8004716634750366e-001</leafValues></_></weakClassifiers></_>
    <!-- stage 4 -->
    <_>
      <maxWeakCount>4</maxWeakCount>
      <stageThreshold>-1.6773048639297485e+000</stageThreshold>
      <weakClassifiers>
        <_>
          <internalNodes>
            0 -1 49 8.0850925296545029e-003</internalNodes>
          <leafValues>
            -8.5069984197616577e-001 8.2578396797180176e-001</leafValues></_>
        <_>
          <internalNodes>
            0 -1 22 5.5843595415353775e-002</internalNodes>
          <leafValues>
            -6.4925545454025269e-001 8.9093834161758423e-001</leafValues></_>
        <_>
          <internalNodes>
            0 -1 19 -1.5260331332683563e-002</internalNodes>
          <leafValues>
            6.4058691263198853e-001 -7.8935426473617554e-001</leafValues></_>
        <_>
          <internalNodes>
            0 -1 61 1.8525062128901482e-002</internalNodes>
          <leafValues>
            -7.9371941089630127e-001 6.1200469732284546e-001</leafValues></_></weakClassifiers></_>
    <!-- stage 5 -->
    <_>
      <maxWeakCount>4</maxWeakCount>
      <stageThreshold>-1.6396213769912720e+000</stageThreshold>
      <weakClassifiers>
        <_>
          <internalNodes>
            0 -1 9 9.0313076972961426e-002</internalNodes>
          <leafValues>
            -8.6623162031173706e-001 6.9716089963912964e-001</leafValues></_>
        <_>
          <internalNodes>
            0 -1 51 1.8354820087552071e-002</internalNodes>
          <leafValues>
            -7.1068370342254639e-001 9.0442341566085815e-001</leafValues></_>
        <_>
          <internalNodes>
            0 -1 26 -1.2502059340476990e-002</internalNodes>
          <leafValues>
            8.3966952562332153e-001 -6.1119854450225830e-001</leafValues></_>
        <_>
          <internalNodes>
            0 -1 46 4.6567682875320315e-004</internalNodes>
          <leafValues>
            5.4849261045455933e-001 -9.2179864645004272e-001</leafValues></_></weakClassifiers></_>
    <!-- stage 6 -->
    <_>
      <maxWeakCount>4</maxWeakCount>
      <stageThreshold>-1.8713150024414062e+000</stageThreshold>
      <weakClassifiers>
        <_>
          <internalNodes>
            0 -1 28 2.5106430053710938e-002</internalNodes>
          <leafValues>
            -8.3775353431701660e-001 7.8546714782714844e-001</leafValues></_>
        <_>
          <internalNodes>
            0 -1 58 1.6542139649391174e-001</internalNodes>
          <leafValues>
            -8.6585921049118042e-001 5.6863296031951904e-001</leafValues></_>
        <_>
          <internalNodes>
            0 -1 2 -1.3098487257957458e-001</internalNodes>
          <leafValues>
            7.1975821256637573e-001 -6.3079166412353516e-001</leafValues></_>
        <_>
          <internalNodes>
            0 -1 37 -2.6540467515587807e-003</internalNodes>
          <leafValues>
            -1. 4.6308937668800354e-001</leafValues></_></weakClassifiers></_>
    <!-- stage 7 -->
    <_>
      <maxWeakCount>5</maxWeakCount>
      <stageThreshold>-1.7493611574172974e+000</stageThreshold>
      <weakClassifiers>
        <_>
          <internalNodes>
            0 -1 7 2.0001193881034851e-001</internalNodes>
          <leafValues>
            -8.9351081848144531e-001 6.8996959924697876e-001</leafValues></_>
        <_>
          <internalNodes>
            0 -1 33 -5.7190153747797012e-002</internalNodes>
          <leafValues>
            6.9241487979888916e-001 -7.7741050720214844e-001</leafValues></_>
        <_>
          <internalNodes>
            0 -1 5 -2.2694808244705200e-001</internalNodes>
          <leafValues>
            5.5615162849426270e-001 -8.1115102767944336e-001</leafValues></_>
        <_>
          <internalNodes>
            0 -1 52 -4.3962687253952026e-002</internalNodes>
          <leafValues>
            3.6092820763587952e-001 -9.5294535160064697e-001</leafValues></_>
        <_>
          <internalNodes>
            0 -1 13 1.0343731939792633e-001</internalNodes>
          <leafValues>
            -9.7581434249877930e-001 3.7178307771682739e-001</leafValues></_></weakClassifiers></_>
    <!-- stage 8 -->
    <_>
      <maxWeakCount>5</maxWeakCount>
      <stageThreshold>-1.4756191968917847e+000</stageThreshold>
      <weakClassifiers>
        <_>
          <internalNodes>
            0 -1 24 -1.3936769962310791e-001</internalNodes>
          <leafValues>
            7.9922777414321899e-001 -7.7049177885055542e-001</leafValues></_>
        <_>
          <internalNodes>
            0 -1 57 -4.0518388152122498e-002</internalNodes>
          <leafValues>
            5.4057031869888306e-001 -8.4970629215240479e-001</leafValues></_>
        <_>
          <internalNodes>
            0 -1 38 -4.9770109355449677e-002</internalNodes>
          <leafValues>
            7.1623820066452026e-001 -7.0647555589675903e-001</leafValues></_>
        <_>
          <internalNodes>
            0 -1 3 -5.3014168515801430e-003</internalNodes>
          <leafValues>
            -9.2766129970550537e-001 4.3123009800910950e-001</leafValues></_>
        <_>
          <internalNodes>
            0 -1 11 8.5375428199768066e-002</internalNodes>
          <leafValues>
            -8.5334753990173340e-001 4.1982439160346985e-001</leafValues></_></weakClassifiers></_>
    <!-- stage 9 -->
    <_>
      <maxWeakCount>4</maxWeakCount>
      <stageThreshold>-1.5495370626449585e+000</stageThreshold>
      <weakClassifiers>
        <_>
          <internalNodes>
            0 -1 60 1.5399253368377686e-001</internalNodes>
          <leafValues>
            -7.5474452972412109e-001 8.4489798545837402e-001</leafValues></_>
        <_>
          <internalNodes>
            0 -1 30 -7.0392014458775520e-003</internalNodes>
          <leafValues>
            6.0885262489318848e-001 -6.5262103080749512e-001</leafValues></_>
        <_>
          <internalNodes>
            0 -1 36 -1.6144059598445892e-002</internalNodes>
          <leafValues>
            7.0230114459991455e-001 -5.5337506532669067e-001</leafValues></_>
        <_>
          <internalNodes>
            0 -1 27 -3.7620012881234288e-004</internalNodes>
          <leafValues>
            4.1120356321334839e-001 -9.5411300659179688e-001</leafValues></_></weakClassifiers></_>
    <!-- stage 10 -->
    <_>
      <maxWeakCount>5</maxWeakCount>
      <stageThreshold>-2.1833796501159668e+000</stageThreshold>
      <weakClassifiers>
        <_>
          <internalNodes>
            0 -1 47 -2.6440892368555069e-002</internalNodes>
          <leafValues>
            6.3999998569488525e-001 -7.9682540893554688e-001</leafValues></_>
        <_>
          <internalNodes>
            0 -1 34 7.6559260487556458e-002</internalNodes>
          <leafValues>
            -8.8288712501525879e-001 4.4011816382408142e-001</leafValues></_>
        <_>
          <internalNodes>
            0 -1 6 -8.4602031856775284e-003</internalNodes>
          <leafValues>
            7.5016534328460693e-001 -5.7217288017272949e-001</leafValues></_>
        <_>
          <internalNodes>
            0 -1 16 -1.6776092350482941e-002</internalNodes>
          <leafValues>
            9.5990687608718872e-001 -3.8234651088714600e-001</leafValues></_>
        <_>
          <internalNodes>
            0 -1 50 -3.6241923226043582e-004</internalNodes>
          <leafValues>
            -9.9315887689590454e-001 4.5085218548774719e-001</leafValues></_></weakClassifiers></_>
    <!-- stage 11 -->
    <_>
      <maxWeakCount>6</maxWeakCount>
      <stageThreshold>-1.5502408742904663e+000</stageThreshold>
      <weakClassifiers>
        <_>
          <internalNodes>
            0 -1 23 3.0138984322547913e-002</internalNodes>
          <leafValues>
            -7.1551722288131714e-001 8.0341881513595581e-001</leafValues></_>
        <_>
          <internalNodes>
            0 -1 54 -2.5891784578561783e-002</internalNodes>
          <leafValues>
            6.0039466619491577e-001 -8.0693435668945313e-001</leafValues></_>
        <_>
          <internalNodes>
            0 -1 20 -4.4508725404739380e-002</internalNodes>
          <leafValues>
            7.1817857027053833e-001 -5.4966533184051514e-001</leafValues></_>
        <_>
          <internalNodes>
            0 -1 25 -1.7672803997993469e-001</internalNodes>
          <leafValues>
            4.2217540740966797e-001 -9.1416591405868530e-001</leafValues></_>
        <_>
          <internalNodes>
            0 -1 17 8.2243932411074638e-003</internalNodes>
          <leafValues>
            -5.7157629728317261e-001 7.0313525199890137e-001</leafValues></_>
        <_>
          <internalNodes>
            0 -1 0 6.9210520014166832e-003</internalNodes>
          <leafValues>
            -5.3493726253509521e-001 6.9205838441848755e-001</leafValues></_></weakClassifiers></_>
    <!-- stage 12 -->
    <_>
      <maxWeakCount>5</maxWeakCount>
      <stageThreshold>-1.4687181711196899e+000</stageThreshold>
      <weakClassifiers>
        <_>
          <internalNodes>
            0 -1 29 -1.5739843249320984e-001</internalNodes>
          <leafValues>
            8.8444441556930542e-001 -7.2198581695556641e-001</leafValues></_>
        <_>
          <internalNodes>
            0 -1 8 2.9675579071044922e-001</internalNodes>
          <leafValues>
            -6.9705563783645630e-001 7.2510236501693726e-001</leafValues></_>
        <_>
          <internalNodes>
            0 -1 35 -8.6677093058824539e-003</internalNodes>
          <leafValues>
            5.0437265634536743e-001 -7.8521442413330078e-001</leafValues></_>
        <_>
          <internalNodes>
            0 -1 50 8.6813932284712791e-005</internalNodes>
          <leafValues>
            3.7535551190376282e-001 -9.2695385217666626e-001</leafValues></_>
        <_>
          <internalNodes>
            0 -1 14 2.1386396838352084e-004</internalNodes>
          <leafValues>
            3.6018216609954834e-001 -9.4174998998641968e-001</leafValues></_></weakClassifiers></_>
    <!-- stage 13 -->
    <_>
      <maxWeakCount>5</maxWeakCount>
      <stageThreshold>-1.3773291110992432e+000</stageThreshold>
      <weakClassifiers>
        <_>
          <internalNodes>
            0 -1 45 2.0489780232310295e-002</internalNodes>
          <leafValues>
            -7.3861968517303467e-001 7.7510040998458862e-001</leafValues></_>
        <_>
          <internalNodes>
            0 -1 21 -1.3797994703054428e-002</internalNodes>
          <leafValues>
            3.8237982988357544e-001 -8.8892352581024170e-001</leafValues></_>
        <_>
          <internalNodes>
            0 -1 40 1.9018514081835747e-002</internalNodes>
          <leafValues>
            -4.9067994952201843e-001 7.9251891374588013e-001</leafValues></_>
        <_>
          <internalNodes>
            0 -1 59 4.0707812877371907e-004</internalNodes>
          <leafValues>
            4.0333169698715210e-001 -9.6221518516540527e-001</leafValues></_>
        <_>
          <internalNodes>
            0 -1 56 -4.5356608927249908e-002</internalNodes>
          <leafValues>
            3.4353929758071899e-001 -9.3374103307723999e-001</leafValues></_></weakClassifiers></_>
    <!-- stage 14 -->
    <_>
      <maxWeakCount>6</maxWeakCount>
      <stageThreshold>-1.3168637752532959e+000</stageThreshold>
      <weakClassifiers>
        <_>
          <internalNodes>
            0 -1 31 -2.6541892439126968e-002</internalNodes>
          <leafValues>
            5.1219511032104492e-001 -7.9401993751525879e-001</leafValues></_>
        <_>
          <internalNodes>
            0 -1 43 1.4200538396835327e-001</internalNodes>
          <leafValues>
            -7.9364287853240967e-001 4.4889461994171143e-001</leafValues></_>
        <_>
          <internalNodes>
            0 -1 62 -2.3030061274766922e-003</internalNodes>
          <leafValues>
            -8.5117501020431519e-001 3.1999185681343079e-001</leafValues></_>
        <_>
          <internalNodes>
            0 -1 10 -1.2295250780880451e-003</internalNodes>
          <leafValues>
            4.8766234517097473e-001 -6.7772448062896729e-001</leafValues></_>
        <_>
          <internalNodes>
            0 -1 49 2.0646860357373953e-003</internalNodes>
          <leafValues>
            -9.4469022750854492e-001 3.7674996256828308e-001</leafValues></_>
        <_>
          <internalNodes>
            0 -1 53 -6.5631512552499771e-004</internalNodes>
          <leafValues>
            -7.7344810962677002e-001 4.0783509612083435e-001</leafValues></_></weakClassifiers></_></stages>
  <features>
    <_>
      <rects>
        <_>
          0 2 3 6 -1.</_>
        <_>
          1 2 1 6 3.</_></rects>
      <tilted>0</tilted></_>
    <_>
      <rects>
        <_>
          0 4 17 10 -1.</_>
        <_>
          0 9 17 5 2.</_></rects>
      <tilted>0</tilted></_>
    <_>
      <rects>
        <_>
          0 5 9 7 -1.</_>
        <_>
          3 5 3 7 3.</_></rects>
      <tilted>0</tilted></_>
    <_>
      <rects>
        <_>
          1 0 9 2 -1.</_>
        <_>
          4 0 3 2 3.</_></rects>
      <tilted>0</tilted></_>
    <_>
      <rects>
        <_>
          1 3 18 7 -1.</_>
        <_>
          7 3 6 7 3.</_></rects>
      <tilted>0</tilted></_>
    <_>
      <rects>
        <_>
          1 3 14 14 -1.</_>
        <_>
          1 10 14 7 2.</_></rects>
      <tilted>0</tilted></_>
    <_>
      <rects>
        <_>
          1 5 2 7 -1.</_>
        <_>
          2 5 1 7 2.</_></rects>
      <tilted>0</tilted></_>
    <_>
      <rects>
        <_>
          2 3 16 6 -1.</_>
        <_>
          6 3 8 6 2.</_></rects>
      <tilted>0</tilted></_>
    <_>
      <rects>
        <_>
          2 3 16 15 -1.</_>
        <_>
          6 3 8 15 2.</_></rects>
      <tilted>0</tilted></_>
    <_>
      <rects>
        <_>
          2 7 16 2 -1.</_>
        <_>
          6 7 8 2 2.</_></rects>
      <tilted>0</tilted></_>
    <_>
      <rects>
        <_>
          3 0 1 6 -1.</_>
        <_>
          3 3 1 3 2.</_></rects>
      <tilted>0</tilted></_>
    <_>
      <rects>
        <_>
          3 2 15 4 -1.</_>
        <_>
          8 2 5 4 3.</_></rects>
      <tilted>0</tilted></_>
    <_>
      <rects>
        <_>
          3 7 8 2 -1.</_>
        <_>
          7 7 4 2 2.</_></rects>
      <tilted>0</tilted></_>
    <_>
      <rects>
        <_>
          4 1 12 12 -1.</_>
        <_>
          7 1 6 12 2.</_></rects>
      <tilted>0</tilted></_>
    <_>
      <rects>
        <_>
          4 8 2 2 -1.</_>
        <_>
          4 8 2 1 2.</_></rects>
      <tilted>1</tilted></_>
    <_>
      <rects>
        <_>
          4 9 8 3 -1.</_>
        <_>
          6 9 4 3 2.</_></rects>
      <tilted>0</tilted></_>
    <_>
      <rects>
        <_>
          6 3 4 5 -1.</_>
        <_>
          8 3 2 5 2.</_></rects>
      <tilted>0</tilted></_>
    <_>
      <rects>
        <_>
          6 10 3 2 -1.</_>
        <_>
          7 10 1 2 3.</_></rects>
      <tilted>0</tilted></_>
    <_>
      <rects>
        <_>
          6 10 8 6 -1.</_>
        <_>
          6 10 4 3 2.</_>
        <_>
          10 13 4 3 2.</_></rects>
      <tilted>0</tilted></_>
    <_>
      <rects>
        <_>
          6 11 3 4 -1.</_>
        <_>
          6 13 3 2 2.</_></rects>
      <tilted>0</tilted></_>
    <_>
      <rects>
        <_>
          6 11 3 9 -1.</_>
        <_>
          6 14 3 3 3.</_></rects>
      <tilted>0</tilted></_>
    <_>
      <rects>
        <_>
          6 11 12 1 -1.</_>
        <_>
          10 11 4 1 3.</_></rects>
      <tilted>0</tilted></_>
    <_>
      <rects>
        <_>
          7 1 5 6 -1.</_>
        <_>
          7 3 5 2 3.</_></rects>
      <tilted>0</tilted></_>
    <_>
      <rects>
        <_>
          7 2 6 3 -1.</_>
        <_>
          7 3 6 1 3.</_></rects>
      <tilted>0</tilted></_>
    <_>
      <rects>
        <_>
          7 3 6 6 -1.</_>
        <_>
          9 5 2 2 9.</_></rects>
      <tilted>0</tilted></_>
    <_>
      <rects>
        <_>
          7 4 12 12 -1.</_>
        <_>
          7 10 12 6 2.</_></rects>
      <tilted>0</tilted></_>
    <_>
      <rects>
        <_>
          7 6 6 1 -1.</_>
        <_>
          9 6 2 1 3.</_></rects>
      <tilted>0</tilted></_>
    <_>
      <rects>
        <_>
          7 12 11 2 -1.</_>
        <_>
          7 13 11 1 2.</_></rects>
      <tilted>0</tilted></_>
    <_>
      <rects>
        <_>
          8 1 4 3 -1.</_>
        <_>
          9 2 2 3 2.</_></rects>
      <tilted>1</tilted></_>
    <_>
      <rects>
        <_>
          8 3 6 6 -1.</_>
        <_>
          10 5 2 2 9.</_></rects>
      <tilted>0</tilted></_>
    <_>
      <rects>
        <_>
          8 4 4 3 -1.</_>
        <_>
          9 4 2 3 2.</_></rects>
      <tilted>0</tilted></_>
    <_>
      <rects>
        <_>
          8 4 5 4 -1.</_>
        <_>
          8 5 5 2 2.</_></rects>
      <tilted>0</tilted></_>
    <_>
      <rects>
        <_>
          8 5 4 7 -1.</_>
        <_>
          9 5 2 7 2.</_></rects>
      <tilted>0</tilted></_>
    <_>
      <rects>
        <_>
          8 5 6 3 -1.</_>
        <_>
          10 6 2 1 9.</_></rects>
      <tilted>0</tilted></_>
    <_>
      <rects>
        <_>
          8 5 8 2 -1.</_>
        <_>
          8 5 4 2 2.</_></rects>
      <tilted>1</tilted></_>
    <_>
      <rects>
        <_>
          8 5 5 3 -1.</_>
        <_>
          8 6 5 1 3.</_></rects>
      <tilted>0</tilted></_>
    <_>
      <rects>
        <_>
          8 6 6 1 -1.</_>
        <_>
          10 6 2 1 3.</_></rects>
      <tilted>0</tilted></_>
    <_>
      <rects>
        <_>
          8 6 8 1 -1.</_>
        <_>
          12 6 4 1 2.</_></rects>
      <tilted>0</tilted></_>
    <_>
      <rects>
        <_>
          8 9 2 8 -1.</_>
        <_>
          6 11 2 4 2.</_></rects>
      <tilted>1</tilted></_>
    <_>
      <rects>
        <_>
          9 0 9 6 -1.</_>
        <_>
          12 3 3 6 3.</_></rects>
      <tilted>1</tilted></_>
    <_>
      <rects>
        <_>
          9 2 3 3 -1.</_>
        <_>
          9 3 3 1 3.</_></rects>
      <tilted>0</tilted></_>
    <_>
      <rects>
        <_>
          9 3 3 4 -1.</_>
        <_>
          9 5 3 2 2.</_></rects>
      <tilted>0</tilted></_>
    <_>
      <rects>
        <_>
          9 5 9 2 -1.</_>
        <_>
          12 5 3 2 3.</_></rects>
      <tilted>0</tilted></_>
    <_>
      <rects>
        <_>
          9 5 8 4 -1.</_>
        <_>
          9 5 4 4 2.</_></rects>
      <tilted>1</tilted></_>
    <_>
      <rects>
        <_>
          9 6 9 1 -1.</_>
        <_>
          12 6 3 1 3.</_></rects>
      <tilted>0</tilted></_>
    <_>
      <rects>
        <_>
          9 7 3 3 -1.</_>
        <_>
          9 8 3 1 3.</_></rects>
      <tilted>0</tilted></_>
    <_>
      <rects>
        <_>
          10 1 1 10 -1.</_>
        <_>
          10 6 1 5 2.</_></rects>
      <tilted>0</tilted></_>
    <_>
      <rects>
        <_>
          10 3 4 2 -1.</_>
        <_>
          11 4 2 2 2.</_></rects>
      <tilted>1</tilted></_>
    <_>
      <rects>
        <_>
          10 5 3 3 -1.</_>
        <_>
          10 6 3 1 3.</_></rects>
      <tilted>0</tilted></_>
    <_>
      <rects>
        <_>
          10 6 4 1 -1.</_>
        <_>
          12 6 2 1 2.</_></rects>
      <tilted>0</tilted></_>
    <_>
      <rects>
        <_>
          10 12 1 2 -1.</_>
        <_>
          10 13 1 1 2.</_></rects>
      <tilted>0</tilted></_>
    <_>
      <rects>
        <_>
          11 6 6 1 -1.</_>
        <_>
          13 6 2 1 3.</_></rects>
      <tilted>0</tilted></_>
    <_>
      <rects>
        <_>
          11 7 6 4 -1.</_>
        <_>
          13 9 2 4 3.</_></rects>
      <tilted>1</tilted></_>
    <_>
      <rects>
        <_>
          11 10 6 4 -1.</_>
        <_>
          11 11 6 2 2.</_></rects>
      <tilted>0</tilted></_>
    <_>
      <rects>
        <_>
          12 1 6 6 -1.</_>
        <_>
          12 1 3 3 2.</_>
        <_>
          15 4 3 3 2.</_></rects>
      <tilted>0</tilted></_>
    <_>
      <rects>
        <_>
          12 5 6 5 -1.</_>
        <_>
          12 5 3 5 2.</_></rects>
      <tilted>1</tilted></_>
    <_>
      <rects>
        <_>
          12 5 7 8 -1.</_>
        <_>
          12 9 7 4 2.</_></rects>
      <tilted>0</tilted></_>
    <_>
      <rects>
        <_>
          13 4 6 6 -1.</_>
        <_>
          15 4 2 6 3.</_></rects>
      <tilted>0</tilted></_>
    <_>
      <rects>
        <_>
          13 4 6 7 -1.</_>
        <_>
          13 4 3 7 2.</_></rects>
      <tilted>1</tilted></_>
    <_>
      <rects>
        <_>
          13 10 4 4 -1.</_>
        <_>
          13 11 4 2 2.</_></rects>
      <tilted>0</tilted></_>
    <_>
      <rects>
        <_>
          14 4 4 8 -1.</_>
        <_>
          14 4 2 8 2.</_></rects>
      <tilted>1</tilted></_>
    <_>
      <rects>
        <_>
          16 4 4 10 -1.</_>
        <_>
          18 4 2 10 2.</_></rects>
      <tilted>0</tilted></_>
    <_>
      <rects>
        <_>
          16 8 4 8 -1.</_>
        <_>
          16 10 4 4 2.</_></rects>
      <tilted>0</tilted></_></features></cascade>
</opencv_storage>
